<?xml version="1.0"?>
<opencv_storage>
<cascade>
  <stageType>BOOST</stageType>
  <featureType>LBP</featureType>
  <height>24</height>
  <width>24</width>
  <stageParams>
    <boostType>GAB</boostType>
    <minHitRate>9.9000000953674316e-01</minHitRate>
    <maxFalseAlarm>5.5000001192092896e-01</maxFalseAlarm>
    <weightTrimRate>9.4999999999999996e-01</weightTrimRate>
    <maxDepth>1</maxDepth>
    <maxWeakCount>60</maxWeakCount></stageParams>
  <featureParams>
    <maxCatCount>256</maxCatCount>
    <featSize>1</featSize></featureParams>
  <stageNum>9</stageNum>
  <stages>
    <!-- stage 0 -->
    <_>
      <maxWeakCount>2</maxWeakCount>
      <stageThreshold>-3.2783243060112000e-01</stageThreshold>
      <weakClassifiers>
        <_>
          <internalNodes>
            0 -1 10 -778309387 8558813 1364316639 -578088707 -324367876
            -1930721112 -337391873 -36701189</internalNodes>
          <leafValues>
            -9.6652424335479736e-01 5.9899330139160156e-01</leafValues></_>
        <_>
          <internalNodes>
            0 -1 6 -136578049 1930629523 1429278905 1059033503
            -746350081 -13923928 450560699 532658687</internalNodes>
          <leafValues>
            -9.2682570219039917e-01 6.5637546777725220e-01</leafValues></_></weakClassifiers></_>
    <!-- stage 1 -->
    <_>
      <maxWeakCount>2</maxWeakCount>
      <stageThreshold>-3.6109310388565063e-01</stageThreshold>
      <weakClassifiers>
        <_>
          <internalNodes>
            0 -1 2 -786827265 1356857303 -451194401 -526025 -777263113
            -80106845 -206902273 -83887369</internalNodes>
          <leafValues>
            -9.0740740299224854e-01 5.9594094753265381e-01</leafValues></_>
        <_>
          <internalNodes>
            0 -1 15 -1164312368 -2370668 -720151075 -10625829 -259359233
            -1158960981 -1343492609 -37782689</internalNodes>
          <leafValues>
            -9.4248914718627930e-01 5.4631429910659790e-01</leafValues></_></weakClassifiers></_>
    <!-- stage 2 -->
    <_>
      <maxWeakCount>3</maxWeakCount>
      <stageThreshold>-1.2429211139678955e+00</stageThreshold>
      <weakClassifiers>
        <_>
          <internalNodes>
            0 -1 3 -170528002 -170789377 -571389993 -170920561
            2007087485 -71726807 2065169151 -2229349</internalNodes>
          <leafValues>
            -9.1922932863235474e-01 3.6971560120582581e-01</leafValues></_>
        <_>
          <internalNodes>
            0 -1 5 -998901761 -576791586 -1731134689 -3156482 -76022817
            -12877653 -69993536 -8390758</internalNodes>
          <leafValues>
            -8.4449285268783569e-01 5.5496096611022949e-01</leafValues></_>
        <_>
          <internalNodes>
            0 -1 1 -220482830 -1076495881 -576858625 1063244063
            -69520646 -70604256 2079013887 -1889587377</internalNodes>
          <leafValues>
            -8.7865269184112549e-01 5.3811591863632202e-01</leafValues></_></weakClassifiers></_>
    <!-- stage 3 -->
    <_>
      <maxWeakCount>3</maxWeakCount>
      <stageThreshold>-1.1657546758651733e+00</stageThreshold>
      <weakClassifiers>
        <_>
          <internalNodes>
            0 -1 11 -187173410 -185215497 891271007 -136462369
            -114033665 -1718255189 -75252737 -1180673</internalNodes>
          <leafValues>
            -8.9615106582641602e-01 3.7560191750526428e-01</leafValues></_>
        <_>
          <internalNodes>
            0 -1 17 -589312769 -8433179 -250086691 -52497702 -3417372
            -1096643935 -55576387 -70254625</internalNodes>
          <leafValues>
            -7.8890639543533325e-01 6.2335592508316040e-01</leafValues></_>
        <_>
          <internalNodes>
            0 -1 3 -168430858 -170534913 -41755753 -39982593 1945467775
            -8805763 2138558263 -805441601</internalNodes>
          <leafValues>
            -8.9295959472656250e-01 5.6779330968856812e-01</leafValues></_></weakClassifiers></_>
    <!-- stage 4 -->
    <_>
      <maxWeakCount>2</maxWeakCount>
      <stageThreshold>-5.8247226476669312e-01</stageThreshold>
      <weakClassifiers>
        <_>
          <internalNodes>
            0 -1 13 -1025 -867241475 -452094017 -285219925 -7349265
            -639705395 -139464977 1156538551</internalNodes>
          <leafValues>
            -9.6198606491088867e-01 3.3755275607109070e-01</leafValues></_>
        <_>
          <internalNodes>
            0 -1 7 -184551972 -191368193 -242656449 -168035553
            -101449740 -726619489 -77332485 -6554625</internalNodes>
          <leafValues>
            -9.2002499103546143e-01 4.0464684367179871e-01</leafValues></_></weakClassifiers></_>
    <!-- stage 5 -->
    <_>
      <maxWeakCount>3</maxWeakCount>
      <stageThreshold>-1.1676338911056519e+00</stageThreshold>
      <weakClassifiers>
        <_>
          <internalNodes>
            0 -1 19 -2097281 -102804581 -385621045 -67642898 -609619219
            1764328194 -1017385147 -138416228</internalNodes>
          <leafValues>
            -8.4652113914489746e-01 4.5131087303161621e-01</leafValues></_>
        <_>
          <internalNodes>
            0 -1 8 34601023 -136351423 337491167 -4206353 1054482564
            -1160050661 -124739332 -61902869</internalNodes>
          <leafValues>
            -8.2063829898834229e-01 5.4233491420745850e-01</leafValues></_>
        <_>
          <internalNodes>
            0 -1 12 -136316945 2002780151 -553260838 1061660927
            1441657519 -237452353 -907031874 1610558207</internalNodes>
          <leafValues>
            -8.6344772577285767e-01 5.1678889989852905e-01</leafValues></_></weakClassifiers></_>
    <!-- stage 6 -->
    <_>
      <maxWeakCount>3</maxWeakCount>
      <stageThreshold>-1.1567850112915039e+00</stageThreshold>
      <weakClassifiers>
        <_>
          <internalNodes>
            0 -1 20 -129 -4198001 -170671678 -140520570 -6821163
            -76709731 -3672203 -134218768</internalNodes>
          <leafValues>
            -8.5341024398803711e-01 4.8907881975173950e-01</leafValues></_>
        <_>
          <internalNodes>
            0 -1 16 -2670593 -2161697 -11151937 -1 -131631 -537945189
            -73430995 -30380483</internalNodes>
          <leafValues>
            -7.9865658283233643e-01 5.7243478298187256e-01</leafValues></_>
        <_>
          <internalNodes>
            0 -1 4 -251661569 922078943 -539099681 2010631647 -539005061
            -1414862326 -36832449 -16842947</internalNodes>
          <leafValues>
            -8.7580955028533936e-01 5.2924782037734985e-01</leafValues></_></weakClassifiers></_>
    <!-- stage 7 -->
    <_>
      <maxWeakCount>3</maxWeakCount>
      <stageThreshold>-1.1662526130676270e+00</stageThreshold>
      <weakClassifiers>
        <_>
          <internalNodes>
            0 -1 18 -2085 -205001761 -788018773 -649596401 -498207768
            -71188310 -141558928 -135266516</internalNodes>
          <leafValues>
            -8.3428001403808594e-01 4.9354517459869385e-01</leafValues></_>
        <_>
          <internalNodes>
            0 -1 0 -1 -2143905 -926155813 -2203842 -229953793 -74735477
            -237014147 -152079500</internalNodes>
          <leafValues>
            -8.2697463035583496e-01 5.3757184743881226e-01</leafValues></_>
        <_>
          <internalNodes>
            0 -1 9 -251660297 198167263 -137822977 -269501777 -3145739
            -142127930 -2115073 -226772897</internalNodes>
          <leafValues>
            -8.5729658603668213e-01 4.9500200152397156e-01</leafValues></_></weakClassifiers></_>
    <!-- stage 8 -->
    <_>
      <maxWeakCount>2</maxWeakCount>
      <stageThreshold>-4.4584974646568298e-01</stageThreshold>
      <weakClassifiers>
        <_>
          <internalNodes>
            0 -1 20 -1048705 -211815725 -255145489 -220212854 -74716231
            -909391733 -3937440 -201327660</internalNodes>
          <leafValues>
            -8.6615812778472900e-01 4.4623655080795288e-01</leafValues></_>
        <_>
          <internalNodes>
            0 -1 14 479665645 -70812860 -1123766283 -539755833
            -779124737 -608211865 -540217377 -548443141</internalNodes>
          <leafValues>
            -8.5817778110504150e-01 4.2030835151672363e-01</leafValues></_></weakClassifiers></_></stages>
  <features>
    <_>
      <rect>
        0 0 1 3</rect></_>
    <_>
      <rect>
        0 0 6 4</rect></_>
    <_>
      <rect>
        0 1 7 7</rect></_>
    <_>
      <rect>
        0 7 5 5</rect></_>
    <_>
      <rect>
        1 1 6 5</rect></_>
    <_>
      <rect>
        2 2 5 7</rect></_>
    <_>
      <rect>
        2 7 5 3</rect></_>
    <_>
      <rect>
        2 10 6 3</rect></_>
    <_>
      <rect>
        2 17 3 1</rect></_>
    <_>
      <rect>
        3 0 6 7</rect></_>
    <_>
      <rect>
        3 5 7 6</rect></_>
    <_>
      <rect>
        4 10 5 3</rect></_>
    <_>
      <rect>
        5 6 3 4</rect></_>
    <_>
      <rect>
        6 0 6 8</rect></_>
    <_>
      <rect>
        6 2 4 4</rect></_>
    <_>
      <rect>
        7 3 3 3</rect></_>
    <_>
      <rect>
        8 0 3 2</rect></_>
    <_>
      <rect>
        10 6 2 2</rect></_>
    <_>
      <rect>
        21 0 1 5</rect></_>
    <_>
      <rect>
        21 1 1 4</rect></_>
    <_>
      <rect>
        21 3 1 3</rect></_></features></cascade>
</opencv_storage>
